{
  "W": {
    "k_voigt": 325.34041462506866,
    "k_reuss": 325.3404146250686,
    "k_vrh": 325.34041462506866,
    "g_voigt": 166.92586852252572,
    "g_reuss": 166.4744299106912,
    "g_vrh": 166.70014921660845,
    "young_modulus": 427.14581518166415,
    "elastic_tensor": {
      "raw": [
        [
          562.2352510066269,
          206.8929964342894,
          206.8929964342894,
          -2.3536728122053312e-14,
          -3.286260152890463e-14,
          -3.175237850427947e-14
        ],
        [
          206.8929964342894,
          562.2352510066271,
          206.89299643428953,
          -2.0206059048177846e-14,
          -3.330669073875469e-14,
          -1.1821345919855548e-14
        ],
        [
          206.8929964342894,
          206.89299643428953,
          562.2352510066272,
          -2.5757174171303635e-14,
          -3.175237850427948e-14,
          -3.3306690738754684e-14
        ],
        [
          -2.3536728122053312e-14,
          -2.0206059048177846e-14,
          -2.5757174171303635e-14,
          159.7624241931588,
          0.0,
          5.229458395263148e-30
        ],
        [
          -3.286260152890463e-14,
          -3.330669073875469e-14,
          -3.175237850427948e-14,
          0.0,
          159.7624241931588,
          -4.434298045229403e-15
        ],
        [
          -3.175237850427947e-14,
          -1.1821345919855548e-14,
          -3.3306690738754684e-14,
          5.229458395263148e-30,
          -4.434298045229403e-15,
          159.76223965397352
        ]
      ],
      "ieee_format": [
        [
          562.2352510066266,
          206.89299643428959,
          206.89299643428964,
          -5.587764745315501e-31,
          -6.573840876841765e-32,
          8.545993139894294e-31
        ],
        [
          206.89299643428959,
          562.2352510066266,
          206.89299643428964,
          1.0846837446788912e-30,
          -5.259072701473412e-31,
          0.0
        ],
        [
          206.89299643428964,
          206.89299643428964,
          562.2352510066268,
          0.0,
          1.035379938102578e-30,
          -5.9164567891575885e-31
        ],
        [
          -5.587764745315501e-31,
          1.0846837446788912e-30,
          0.0,
          159.76236268009717,
          6.36162731157808e-32,
          6.36162731157808e-32
        ],
        [
          -6.573840876841765e-32,
          -5.259072701473412e-31,
          1.035379938102578e-30,
          6.36162731157808e-32,
          159.76236268009717,
          7.395570986446986e-32
        ],
        [
          8.545993139894294e-31,
          0.0,
          -5.9164567891575885e-31,
          6.36162731157808e-32,
          7.395570986446986e-32,
          159.76236268009717
        ]
      ]
    },
    "fractional_composition": {
      "W": 1.0
    },
    "structure_dict": {
      "@module": "pymatgen.core.structure",
      "@class": "Structure",
      "charge": 0.0,
      "lattice": {
        "matrix": [
          [
            3.1589426859393632,
            -0.0,
            -0.0
          ],
          [
            -0.0,
            3.1589426859393632,
            0.0
          ],
          [
            -0.0,
            -0.0,
            3.1589426859393632
          ]
        ],
        "pbc": [
          true,
          true,
          true
        ],
        "a": 3.1589426859393632,
        "b": 3.1589426859393632,
        "c": 3.1589426859393632,
        "alpha": 90.0,
        "beta": 90.0,
        "gamma": 90.0,
        "volume": 31.522832850781786
      },
      "properties": {},
      "sites": [
        {
          "species": [
            {
              "element": "W",
              "occu": 1
            }
          ],
          "abc": [
            0.0,
            -0.0,
            0.0
          ],
          "properties": {
            "magmom": 0.0
          },
          "label": "W",
          "xyz": [
            0.0,
            0.0,
            0.0
          ]
        },
        {
          "species": [
            {
              "element": "W",
              "occu": 1
            }
          ],
          "abc": [
            0.5,
            0.5,
            0.5
          ],
          "properties": {
            "magmom": 0.0
          },
          "label": "W",
          "xyz": [
            1.5794713429696816,
            1.5794713429696816,
            1.5794713429696816
          ]
        }
      ]
    }
  },
  "Nb": {
    "k_voigt": 186.76543671158183,
    "k_reuss": 186.7654367115818,
    "k_vrh": 186.7654367115818,
    "g_voigt": 43.648547441200144,
    "g_reuss": 31.96517833665804,
    "g_vrh": 37.80686288892909,
    "young_modulus": 106.25112888474204,
    "elastic_tensor": {
      "raw": [
        [
          285.9398346414573,
          137.17823774664416,
          137.17823774664416,
          3.0642155479654314e-14,
          3.2418512319054565e-14,
          3.330669073875469e-14
        ],
        [
          137.17823774664416,
          285.9398346414573,
          137.1782377466442,
          3.2418512319054565e-14,
          3.0642155479654314e-14,
          4.710823473269297e-14
        ],
        [
          137.17823774664416,
          137.1782377466442,
          285.93983464145737,
          3.019806626980426e-14,
          3.019806626980426e-14,
          3.064215547965431e-14
        ],
        [
          3.0642155479654314e-14,
          3.2418512319054565e-14,
          3.019806626980426e-14,
          23.160402811129845,
          0.0,
          -4.8111017236420966e-30
        ],
        [
          3.2418512319054565e-14,
          3.0642155479654314e-14,
          3.019806626980426e-14,
          0.0,
          23.16040281112985,
          -6.428303115127404e-16
        ],
        [
          3.330669073875469e-14,
          4.710823473269297e-14,
          3.064215547965431e-14,
          -4.8111017236420966e-30,
          -6.428303115127404e-16,
          23.160334688928465
        ]
      ],
      "ieee_format": [
        [
          285.93983464145714,
          137.17823774664427,
          137.17823774664427,
          -4.807524230662194e-15,
          -1.7950617119507774e-15,
          8.22593510307773e-15
        ],
        [
          137.17823774664427,
          285.9398346414567,
          137.17823774664427,
          -8.225935103077736e-15,
          -5.259072701473412e-31,
          8.225935103077728e-15
        ],
        [
          137.17823774664427,
          137.17823774664427,
          285.93983464145674,
          -8.225935103077731e-15,
          1.7950617119507794e-15,
          4.8075242306621924e-15
        ],
        [
          -4.807524230662194e-15,
          -8.225935103077736e-15,
          -8.225935103077731e-15,
          23.160380103729395,
          8.116745802323847e-16,
          -1.997513584235557e-31
        ],
        [
          -1.795061711950779e-15,
          -5.259072701473412e-31,
          1.7950617119507794e-15,
          8.116745802323845e-16,
          23.160380103729395,
          -8.116745802323841e-16
        ],
        [
          8.22593510307773e-15,
          8.225935103077728e-15,
          4.8075242306621924e-15,
          -1.9819262170559352e-31,
          -8.116745802323841e-16,
          23.160380103729384
        ]
      ]
    },
    "fractional_composition": {
      "Nb": 1.0
    },
    "structure_dict": {
      "@module": "pymatgen.core.structure",
      "@class": "Structure",
      "charge": 0.0,
      "lattice": {
        "matrix": [
          [
            -1.6334666439666903,
            1.6334666439666903,
            1.6334666439666903
          ],
          [
            1.6334666439666903,
            -1.6334666439666903,
            1.6334666439666903
          ],
          [
            1.6334666439666903,
            1.6334666439666903,
            -1.6334666439666903
          ]
        ],
        "pbc": [
          true,
          true,
          true
        ],
        "a": 2.82924721981933,
        "b": 2.82924721981933,
        "c": 2.82924721981933,
        "alpha": 109.47122063449069,
        "beta": 109.47122063449069,
        "gamma": 109.47122063449069,
        "volume": 17.4337495475593
      },
      "properties": {},
      "sites": [
        {
          "species": [
            {
              "element": "Nb",
              "occu": 1
            }
          ],
          "abc": [
            -0.0,
            0.0,
            0.0
          ],
          "properties": {
            "magmom": -0.0
          },
          "label": "Nb",
          "xyz": [
            0.0,
            0.0,
            0.0
          ]
        }
      ]
    }
  },
  "Ta": {
    "k_voigt": 211.59000382515345,
    "k_reuss": 211.59000382515353,
    "k_vrh": 211.59000382515347,
    "g_voigt": 65.96624041422646,
    "g_reuss": 65.6163539007808,
    "g_vrh": 65.79129715750364,
    "young_modulus": 178.83806286624662,
    "elastic_tensor": {
      "raw": [
        [
          291.8154660520518,
          171.47727271170413,
          171.47727271170413,
          9.59232693276135e-14,
          -2.5757174171303625e-14,
          -2.1316282072803e-14
        ],
        [
          171.47727271170413,
          291.8154660520518,
          171.4772727117042,
          7.283063041541026e-14,
          -2.2204460492503124e-14,
          -7.949667893605587e-15
        ],
        [
          171.47727271170413,
          171.4772727117042,
          291.8154660520519,
          6.838973831690964e-14,
          -2.664535259100376e-14,
          -2.220446049250314e-14
        ],
        [
          9.59232693276135e-14,
          7.283063041541026e-14,
          6.838973831690964e-14,
          69.83088610763139,
          0.0,
          3.486305596842099e-30
        ],
        [
          -2.5757174171303625e-14,
          -2.2204460492503124e-14,
          -2.664535259100376e-14,
          0.0,
          69.8308861076314,
          -1.9381964396667343e-15
        ],
        [
          -2.1316282072803e-14,
          -7.949667893605587e-15,
          -2.220446049250314e-14,
          3.486305596842099e-30,
          -1.9381964396667343e-15,
          69.8312365155218
        ]
      ],
      "ieee_format": [
        [
          291.81546605205216,
          171.47727271170425,
          171.47727271170393,
          1.4445334922512375e-14,
          -6.68766097566096e-15,
          -1.817295491641388e-14
        ],
        [
          171.47727271170425,
          291.81546605205216,
          171.4772727117041,
          2.4922543444595328e-14,
          -3.172966939407682e-15,
          -1.867413633319071e-14
        ],
        [
          171.47727271170393,
          171.4772727117041,
          291.81546605205216,
          2.5870677269781215e-14,
          -4.4692419477717595e-15,
          -1.0479126248252762e-14
        ],
        [
          1.4445334922512372e-14,
          2.4922543444595322e-14,
          2.5870677269781215e-14,
          69.83100291026139,
          -4.267433206433911e-15,
          -1.2921325807399354e-15
        ],
        [
          -6.687660975660962e-15,
          -3.172966939407682e-15,
          -4.4692419477717595e-15,
          -4.267433206433911e-15,
          69.83100291026152,
          5.882599337599365e-15
        ],
        [
          -1.8172954916413874e-14,
          -1.867413633319071e-14,
          -1.0479126248252766e-14,
          -1.2921325807399352e-15,
          5.882599337599367e-15,
          69.83100291026149
        ]
      ]
    },
    "fractional_composition": {
      "Ta": 1.0
    },
    "structure_dict": {
      "@module": "pymatgen.core.structure",
      "@class": "Structure",
      "charge": 0.0,
      "lattice": {
        "matrix": [
          [
            -1.6380396423828427,
            1.6380396423828427,
            1.6380396423828427
          ],
          [
            1.6380396423828427,
            -1.6380396423828427,
            1.6380396423828427
          ],
          [
            1.6380396423828427,
            1.6380396423828427,
            -1.6380396423828427
          ]
        ],
        "pbc": [
          true,
          true,
          true
        ],
        "a": 2.8371678854190376,
        "b": 2.8371678854190376,
        "c": 2.8371678854190376,
        "alpha": 109.47122063449069,
        "beta": 109.47122063449069,
        "gamma": 109.47122063449069,
        "volume": 17.5805806659792
      },
      "properties": {},
      "sites": [
        {
          "species": [
            {
              "element": "Ta",
              "occu": 1
            }
          ],
          "abc": [
            -0.0,
            0.0,
            -0.0
          ],
          "properties": {
            "magmom": -0.0
          },
          "label": "Ta",
          "xyz": [
            0.0,
            0.0,
            0.0
          ]
        }
      ]
    }
  },
  "Ta(NbW)2": {
    "k_voigt": 240.63520543955943,
    "k_reuss": 240.0646766014118,
    "k_vrh": 240.34994102048563,
    "g_voigt": 64.16700492169241,
    "g_reuss": 59.4484298469817,
    "g_vrh": 61.80771738433705,
    "young_modulus": 170.7837303007798,
    "elastic_tensor": {
      "raw": [
        [
          356.057875530717,
          182.92387039398037,
          182.92387039398037,
          4.134985134934849,
          2.3616034521732248,
          -2.5098082313125536
        ],
        [
          182.92387039398037,
          356.057875530717,
          182.9238703939804,
          2.50980823131254,
          4.134985134934855,
          -2.5098158775084163
        ],
        [
          182.92387039398037,
          182.9238703939804,
          356.05787553071707,
          2.5098158775084083,
          2.6580300783107,
          -4.134985134934872
        ],
        [
          4.134985134934849,
          2.50980823131254,
          2.5098158775084083,
          49.2332125232605,
          -0.2537601625000293,
          0.13455969574708918
        ],
        [
          2.3616034521732248,
          4.134985134934855,
          2.6580300783107,
          -0.2537601625000293,
          49.234594425204335,
          0.015483678621056186
        ],
        [
          -2.5098082313125536,
          -2.5098158775084163,
          -4.134985134934872,
          0.13455969574708918,
          0.015483678621056186,
          49.233212523260626
        ]
      ],
      "ieee_format": [
        [
          323.7441733689659,
          202.37536788878617,
          204.9406874452362,
          17.152592057826453,
          0.0,
          7.105427357601002e-15
        ],
        [
          202.37536788878623,
          323.74417336896636,
          204.94068744523628,
          -17.15259205782649,
          1.0658141036401503e-14,
          1.4210854715202004e-14
        ],
        [
          204.94068744523616,
          204.94068744523628,
          293.7150166595853,
          -1.0658141036401503e-14,
          1.4210854715202004e-14,
          1.4210854715202004e-14
        ],
        [
          17.152592057826446,
          -17.152592057826507,
          -4.973799150320701e-14,
          75.25087416447631,
          1.4210854715202004e-14,
          3.552713678800501e-15
        ],
        [
          2.842170943040401e-14,
          7.105427357601002e-15,
          1.4210854715202004e-14,
          1.4210854715202004e-14,
          75.25087416447629,
          17.152592057826457
        ],
        [
          7.105427357601002e-15,
          1.4210854715202004e-14,
          7.105427357601002e-15,
          -3.552713678800501e-15,
          17.152592057826467,
          60.68440274008988
        ]
      ]
    },
    "fractional_composition": {
      "W": 0.4,
      "Nb": 0.4,
      "Ta": 0.2
    },
    "structure_dict": {
      "@module": "pymatgen.core.structure",
      "@class": "Structure",
      "charge": 0.0,
      "lattice": {
        "matrix": [
          [
            3.2066489285241433,
            0.0,
            3.2066489285241433
          ],
          [
            3.2066489285241433,
            -3.2066489285241433,
            -0.0
          ],
          [
            4.847005007512833,
            1.6403560789886902,
            -1.6403560789886902
          ]
        ],
        "pbc": [
          true,
          true,
          true
        ],
        "a": 4.534886404487997,
        "b": 4.534886404487997,
        "c": 5.3735457264830995,
        "alpha": 65.04135059514738,
        "beta": 65.04135059514738,
        "gamma": 60.00000000000001,
        "volume": 83.57404299396228
      },
      "properties": {},
      "sites": [
        {
          "species": [
            {
              "element": "W",
              "occu": 1
            }
          ],
          "abc": [
            0.9978016124337615,
            0.9978016124337615,
            0.0065951626987227
          ],
          "properties": {
            "magmom": -0.0
          },
          "label": "W",
          "xyz": [
            6.431165729406838,
            -3.1887810561656145,
            3.1887810561656145
          ]
        },
        {
          "species": [
            {
              "element": "W",
              "occu": 1
            }
          ],
          "abc": [
            0.802198434425729,
            0.802198434425729,
            0.5934046967228058
          ],
          "properties": {
            "magmom": -0.0
          },
          "label": "W",
          "xyz": [
            8.020973036927092,
            -1.5989737486453146,
            1.5989737486453146
          ]
        },
        {
          "species": [
            {
              "element": "Nb",
              "occu": 1
            }
          ],
          "abc": [
            0.6043251306972344,
            0.6043251306972344,
            0.1870246079083107
          ],
          "properties": {
            "magmom": 0.0
          },
          "label": "Nb",
          "xyz": [
            4.782226276720705,
            -1.6310715803276257,
            1.6310715803276257
          ]
        },
        {
          "species": [
            {
              "element": "Ta",
              "occu": 1
            }
          ],
          "abc": [
            0.4000000367976386,
            0.4000000367976386,
            0.7999998896070841
          ],
          "properties": {
            "magmom": 0.0
          },
          "label": "Ta",
          "xyz": [
            6.442922849748783,
            0.029624992700495678,
            -0.029624992700495678
          ]
        },
        {
          "species": [
            {
              "element": "Nb",
              "occu": 1
            }
          ],
          "abc": [
            0.1956747856456435,
            0.1956747856456506,
            0.4129756430630621
          ],
          "properties": {
            "magmom": -0.0
          },
          "label": "Nb",
          "xyz": [
            3.2566156933671055,
            0.04996676484294049,
            -0.04996676484296325
          ]
        }
      ]
    }
  },
  "Ta3NbW2": {
    "k_voigt": 237.5909013892101,
    "k_reuss": 237.29144126823985,
    "k_vrh": 237.44117132872498,
    "g_voigt": 77.95576762798616,
    "g_reuss": 74.37352943199993,
    "g_vrh": 76.16464852999304,
    "young_modulus": 206.4223890537892,
    "elastic_tensor": {
      "raw": [
        [
          353.6939788078456,
          171.0366125651139,
          191.34470911305476,
          1.398881011027697e-14,
          -1.341860341030145,
          -5.7731597280508124e-15
        ],
        [
          171.0366125651139,
          364.0942864006324,
          171.0366125651139,
          -1.5654144647214704e-14,
          -9.906236204176455,
          2.420115985184007e-14
        ],
        [
          191.34470911305476,
          171.0366125651139,
          353.69397880784567,
          8.770761894538737e-15,
          -1.3418458962612205,
          -7.105427357600999e-15
        ],
        [
          1.398881011027697e-14,
          -1.5654144647214704e-14,
          8.770761894538737e-15,
          70.13554274699015,
          -2.642330798607872e-14,
          -17.246451523005778
        ],
        [
          -1.341860341030145,
          -9.906236204176455,
          -1.3418458962612205,
          -2.642330798607872e-14,
          70.46640056327374,
          1.1184323208941168e-14
        ],
        [
          -5.7731597280508124e-15,
          2.420115985184007e-14,
          -7.105427357600999e-15,
          -17.246451523005778,
          1.1184323208941168e-14,
          69.82212490531961
        ]
      ],
      "ieee_format": [
        [
          340.30203828643266,
          202.05294339717665,
          161.1303763609376,
          2.151236524270391e-15,
          -7.888609052210118e-31,
          -1.4210854715202004e-14
        ],
        [
          202.05294339717668,
          345.66945076101564,
          180.94284876929055,
          3.6803065085486205e-15,
          7.888609052210118e-31,
          -1.4210854715202004e-14
        ],
        [
          161.1303763609376,
          180.94284876929055,
          364.09428640063277,
          3.782659659719256e-15,
          0.0,
          0.0
        ],
        [
          2.1512365242703893e-15,
          3.68030650854862e-15,
          3.782659659719255e-15,
          87.22528534916071,
          0.0,
          1.9721522630525295e-31
        ],
        [
          -9.860761315262648e-31,
          7.888609052210118e-31,
          -3.944304526105059e-31,
          7.105427357601002e-15,
          52.732382303149116,
          8.642578183406966e-16
        ],
        [
          -2.842170943040401e-14,
          -2.842170943040401e-14,
          0.0,
          1.9721522630525295e-31,
          8.642578183406967e-16,
          81.17463484739551
        ]
      ]
    },
    "fractional_composition": {
      "W": 0.3333333333333333,
      "Ta": 0.5,
      "Nb": 0.16666666666666666
    },
    "structure_dict": {
      "@module": "pymatgen.core.structure",
      "@class": "Structure",
      "charge": 0.0,
      "lattice": {
        "matrix": [
          [
            0.0,
            -3.2346848026383066,
            0.0
          ],
          [
            -3.250700152037716,
            0.0,
            -3.250700152037716
          ],
          [
            4.8150138239977744,
            1.6173424013191533,
            -4.8150138239977744
          ]
        ],
        "pbc": [
          true,
          true,
          true
        ],
        "a": 3.2346848026383066,
        "b": 4.59718424222002,
        "c": 6.998893676409447,
        "alpha": 90.0,
        "beta": 103.36098435498961,
        "gamma": 90.0,
        "volume": 101.25964807521129
      },
      "properties": {},
      "sites": [
        {
          "species": [
            {
              "element": "W",
              "occu": 1
            }
          ],
          "abc": [
            0.0001240556186985,
            0.0,
            0.0002481112373971
          ],
          "properties": {
            "magmom": 0.0
          },
          "label": "W",
          "xyz": [
            0.00119465903795623,
            1.6176296413483726e-16,
            -0.00119465903795623
          ]
        },
        {
          "species": [
            {
              "element": "Ta",
              "occu": 1
            }
          ],
          "abc": [
            0.6631398191214828,
            0.0,
            0.3262796382429798
          ],
          "properties": {
            "magmom": 0.0
          },
          "label": "Ta",
          "xyz": [
            1.5710409686289406,
            -1.6173424013191302,
            -1.5710409686289406
          ]
        },
        {
          "species": [
            {
              "element": "Ta",
              "occu": 1
            }
          ],
          "abc": [
            0.3376184587088247,
            0.0,
            0.6752369174176636
          ],
          "properties": {
            "magmom": 0.0
          },
          "label": "Ta",
          "xyz": [
            3.2512750918396938,
            2.3092638912203256e-14,
            -3.2512750918396938
          ]
        },
        {
          "species": [
            {
              "element": "Ta",
              "occu": 1
            }
          ],
          "abc": [
            0.5025519144990938,
            0.5,
            0.0051038289981733
          ],
          "properties": {
            "magmom": -0.0
          },
          "label": "Ta",
          "xyz": [
            -1.6007750688373328,
            -1.6173424013191762,
            -1.6499250832003831
          ]
        },
        {
          "species": [
            {
              "element": "W",
              "occu": 1
            }
          ],
          "abc": [
            0.1674238208023766,
            0.5,
            0.3348476416047745
          ],
          "properties": {
            "magmom": 0.0
          },
          "label": "W",
          "xyz": [
            -0.013054052758816548,
            3.441691376337985e-14,
            -3.2376460992788996
          ]
        },
        {
          "species": [
            {
              "element": "Nb",
              "occu": 1
            }
          ],
          "abc": [
            0.8291419312495094,
            0.5,
            0.6582838624990046
          ],
          "properties": {
            "magmom": -0.0
          },
          "label": "Nb",
          "xyz": [
            1.5442958220284995,
            -1.6173424013191762,
            -4.794995974066215
          ]
        }
      ]
    }
  },
  "Ta2Nb2W": {
    "k_voigt": 218.67678361693535,
    "k_reuss": 218.67219497696968,
    "k_vrh": 218.67448929695252,
    "g_voigt": 67.90404757828354,
    "g_reuss": 63.50966643476804,
    "g_vrh": 65.7068570065258,
    "young_modulus": 179.17456996319996,
    "elastic_tensor": {
      "raw": [
        [
          331.7680277446636,
          162.13116155307108,
          162.13116155307114,
          5.363358167439468,
          -2.0953983530375693,
          2.1846637266801054
        ],
        [
          162.13116155307108,
          331.76802774466375,
          162.13116155307114,
          -2.1846637266800735,
          5.363358167439471,
          2.184660955282974
        ],
        [
          162.13116155307114,
          162.13116155307114,
          331.7680277446638,
          -2.184660955282937,
          -2.2739333971013833,
          -5.363358167439483
        ],
        [
          5.363358167439468,
          -2.1846637266800735,
          -2.184660955282937,
          56.627958389632006,
          7.588401824999993,
          -7.575389292835371
        ],
        [
          -2.0953983530375693,
          5.363358167439471,
          -2.2739333971013833,
          7.588401824999993,
          56.627454920560965,
          -7.562360738965287
        ],
        [
          2.1846637266801054,
          2.184660955282974,
          -5.363358167439483,
          -7.575389292835371,
          -7.562360738965287,
          56.62795838963206
        ]
      ],
      "ieee_format": [
        [
          299.20805817745423,
          187.323256209735,
          170.4930675930347,
          15.081180801078894,
          -1.4210854715202004e-13,
          -5.684341886080802e-14
        ],
        [
          187.323256209735,
          299.2080581774541,
          170.49306759303462,
          -15.081180801078755,
          -8.881784197001252e-14,
          -3.907985046680551e-14
        ],
        [
          170.49306759303474,
          170.4930675930347,
          313.0561534059012,
          9.237055564881302e-14,
          -1.7053025658242404e-13,
          -2.4868995751603507e-14
        ],
        [
          15.081180801078904,
          -15.081180801078723,
          1.3855583347321954e-13,
          77.92843872627824,
          -7.105427357601002e-15,
          -3.197442310920451e-14
        ],
        [
          -1.7053025658242404e-13,
          -1.0302869668521453e-13,
          -1.4921397450962104e-13,
          -7.105427357601002e-15,
          77.92843872627822,
          15.081180801078865
        ],
        [
          -5.684341886080802e-14,
          -4.440892098500626e-14,
          -2.1316282072803006e-14,
          -3.907985046680551e-14,
          15.081180801078858,
          55.94240098385954
        ]
      ]
    },
    "fractional_composition": {
      "W": 0.2,
      "Nb": 0.4,
      "Ta": 0.4
    },
    "structure_dict": {
      "@module": "pymatgen.core.structure",
      "@class": "Structure",
      "charge": 0.0,
      "lattice": {
        "matrix": [
          [
            3.2331164715554084,
            -0.0,
            3.233116471555408
          ],
          [
            3.2331164715554084,
            -3.233116471555408,
            -0.0
          ],
          [
            4.885620651665131,
            1.6525041801097209,
            -1.6525041801097209
          ]
        ],
        "pbc": [
          true,
          true,
          true
        ],
        "a": 4.572317162805505,
        "b": 4.572317162805505,
        "c": 5.415794427647437,
        "alpha": 65.030988602134,
        "beta": 65.030988602134,
        "gamma": 59.999999999999986,
        "volume": 85.61699003940785
      },
      "properties": {},
      "sites": [
        {
          "species": [
            {
              "element": "W",
              "occu": 1
            }
          ],
          "abc": [
            8.9257881e-09,
            8.9257881e-09,
            -2.67773501e-08
          ],
          "properties": {
            "magmom": -0.0
          },
          "label": "W",
          "xyz": [
            -7.310774958998087e-08,
            -7.31077955002347e-08,
            7.31077955002347e-08
          ]
        },
        {
          "species": [
            {
              "element": "Nb",
              "occu": 1
            }
          ],
          "abc": [
            0.8040342889997953,
            0.8040342889997953,
            0.5878971330006283
          ],
          "properties": {
            "magmom": -0.0
          },
          "label": "Nb",
          "xyz": [
            8.071315380963751,
            -1.6280340337025208,
            1.6280340337025208
          ]
        },
        {
          "species": [
            {
              "element": "Ta",
              "occu": 1
            }
          ],
          "abc": [
            0.6033788993682249,
            0.6033788993682249,
            0.1898633018953464
          ],
          "properties": {
            "magmom": 0.0
          },
          "label": "Ta",
          "xyz": [
            4.829188585005998,
            -1.6370443581048868,
            1.6370443581048868
          ]
        },
        {
          "species": [
            {
              "element": "Ta",
              "occu": 1
            }
          ],
          "abc": [
            0.396621086165121,
            0.396621086165121,
            0.8101367415046299
          ],
          "properties": {
            "magmom": 0.0
          },
          "label": "Ta",
          "xyz": [
            6.522665128261014,
            0.05643218515021986,
            -0.05643218515021986
          ]
        },
        {
          "species": [
            {
              "element": "Nb",
              "occu": 1
            }
          ],
          "abc": [
            0.1959657165410777,
            0.1959657165410848,
            0.4121028503767456
          ],
          "properties": {
            "magmom": -0.0
          },
          "label": "Nb",
          "xyz": [
            3.28053816842895,
            0.04742169687356368,
            -0.04742169687358666
          ]
        }
      ]
    }
  },
  "Ta3NbW": {
    "k_voigt": 222.2650682357349,
    "k_reuss": 222.24720226155856,
    "k_vrh": 222.25613524864673,
    "g_voigt": 75.93344696141081,
    "g_reuss": 74.22715253415362,
    "g_vrh": 75.08029974778222,
    "young_modulus": 202.44493814586707,
    "elastic_tensor": {
      "raw": [
        [
          335.4415080159943,
          165.67684834560475,
          165.67684834560475,
          1.3946100074387195,
          -2.0898686795870915,
          1.7621641270104624
        ],
        [
          165.67684834560475,
          335.4415080159945,
          165.67684834560487,
          -1.7621641270103314,
          1.3946100074387209,
          1.7621502556132802
        ],
        [
          165.67684834560475,
          165.67684834560487,
          335.44150801599454,
          -1.7621502556131572,
          -1.4344482143175992,
          -1.3946100074387358
        ],
        [
          1.3946100074387195,
          -1.7621641270103314,
          -1.7621502556131572,
          69.96757391812139,
          7.168441516666627,
          -7.327990771188355
        ],
        [
          -2.0898686795870915,
          1.3946100074387209,
          -1.4344482143175992,
          7.168441516666627,
          69.96742730042119,
          -7.487543970892771
        ],
        [
          1.7621641270104624,
          1.7621502556132802,
          -1.3946100074387358,
          -7.327990771188355,
          -7.487543970892771,
          69.96757391812157
        ]
      ],
      "ieee_format": [
        [
          317.0023880066372,
          181.10381432716324,
          166.55929716112553,
          9.741297739390294,
          0.0,
          -7.105427357601002e-15
        ],
        [
          181.1038143271631,
          317.00238800663755,
          166.55929716112567,
          -9.741297739390808,
          -3.552713678800501e-15,
          0.0
        ],
        [
          166.55929716112553,
          166.55929716112553,
          337.9360208095107,
          -3.801403636316536e-13,
          -2.1316282072803006e-14,
          7.105427357601002e-15
        ],
        [
          9.741297739390308,
          -9.741297739390786,
          -4.192202140984591e-13,
          79.57257595476331,
          0.0,
          -3.552713678800501e-15
        ],
        [
          0.0,
          -3.197442310920451e-14,
          -2.1316282072803006e-14,
          -7.105427357601002e-15,
          79.57257595476335,
          9.741297739390454
        ],
        [
          -7.105427357601002e-15,
          -7.105427357601002e-15,
          -7.105427357601002e-15,
          -1.0658141036401503e-14,
          9.74129773939045,
          67.94928683973706
        ]
      ]
    },
    "fractional_composition": {
      "W": 0.2,
      "Ta": 0.6,
      "Nb": 0.2
    },
    "structure_dict": {
      "@module": "pymatgen.core.structure",
      "@class": "Structure",
      "charge": 0.0,
      "lattice": {
        "matrix": [
          [
            3.2494823314183416,
            -0.0,
            3.2494823314183416
          ],
          [
            3.2494823314183416,
            -3.2494823314183416,
            0.0
          ],
          [
            4.877731126895438,
            1.62824879547709,
            -1.62824879547709
          ]
        ],
        "pbc": [
          true,
          true,
          true
        ],
        "a": 4.595461983783563,
        "b": 4.595461983783563,
        "c": 5.393945608386298,
        "alpha": 64.78707818335828,
        "beta": 64.78707818335828,
        "gamma": 60.00000000000001,
        "volume": 85.89042258692223
      },
      "properties": {},
      "sites": [
        {
          "species": [
            {
              "element": "W",
              "occu": 1
            }
          ],
          "abc": [
            0.0010733145298104,
            0.0010733145298104,
            0.9967800564105616
          ],
          "properties": {
            "magmom": 0.0
          },
          "label": "W",
          "xyz": [
            4.869000541023733,
            1.619518209605409,
            -1.619518209605409
          ]
        },
        {
          "species": [
            {
              "element": "Ta",
              "occu": 1
            }
          ],
          "abc": [
            0.8042613329099673,
            0.8042613329099673,
            0.587216001270098
          ],
          "properties": {
            "magmom": -0.0
          },
          "label": "Ta",
          "xyz": [
            8.091147749874034,
            -1.657299244380993,
            1.657299244380993
          ]
        },
        {
          "species": [
            {
              "element": "Ta",
              "occu": 1
            }
          ],
          "abc": [
            0.6020503561830537,
            0.6020503561830537,
            0.1938489314508601
          ],
          "properties": {
            "magmom": -0.0
          },
          "label": "Ta",
          "xyz": [
            4.858246956935185,
            -1.6407177059015683,
            1.6407177059015683
          ]
        },
        {
          "species": [
            {
              "element": "Ta",
              "occu": 1
            }
          ],
          "abc": [
            0.3961954015823989,
            0.3961954015823989,
            0.8114137952528107
          ],
          "properties": {
            "magmom": -0.0
          },
          "label": "Ta",
          "xyz": [
            6.5327182403593955,
            0.033753577522683154,
            -0.033753577522683154
          ]
        },
        {
          "species": [
            {
              "element": "Nb",
              "occu": 1
            }
          ],
          "abc": [
            0.1964195947947696,
            0.1964195947947767,
            0.4107412156156627
          ],
          "properties": {
            "magmom": -0.0
          },
          "label": "Nb",
          "xyz": [
            3.2800092181673195,
            0.030526886749021487,
            -0.03052688674904458
          ]
        }
      ]
    }
  },
  "Ta2NbW2": {
    "k_voigt": 242.2785682443056,
    "k_reuss": 242.2721101655722,
    "k_vrh": 242.27533920493892,
    "g_voigt": 69.51386668026065,
    "g_reuss": 65.01959361013097,
    "g_vrh": 67.26673014519581,
    "young_modulus": 184.70591650905837,
    "elastic_tensor": {
      "raw": [
        [
          360.5282728090707,
          183.15371596192273,
          183.15371596192267,
          8.153873323937463,
          -4.9921723875716095,
          4.633454063362283
        ],
        [
          183.15371596192273,
          360.5282728090708,
          183.15371596192273,
          -4.633454063362238,
          8.15387332393744,
          4.633451800862985
        ],
        [
          183.15371596192267,
          183.15371596192273,
          360.52827280907087,
          -4.63345180086294,
          -4.274730050070897,
          -8.153873323937445
        ],
        [
          8.153873323937463,
          -4.633454063362238,
          -4.63345180086294,
          56.731307244318614,
          3.4535343791666504,
          -3.605509719890908
        ],
        [
          -4.9921723875716095,
          8.15387332393744,
          -4.274730050070897,
          3.4535343791666504,
          56.73216206551745,
          -3.757456589940702
        ],
        [
          4.633454063362283,
          4.633451800862985,
          -8.153873323937445,
          -3.605509719890908,
          -3.757456589940702,
          56.73130724431875
        ]
      ],
      "ieee_format": [
        [
          319.3056818481841,
          206.3958078723358,
          200.02118361430308,
          13.749702497596967,
          0.0,
          -7.105427357601002e-15
        ],
        [
          206.39580787233584,
          319.30568184818446,
          200.021183614303,
          -13.749702497597097,
          -3.552713678800501e-15,
          -1.4210854715202004e-14
        ],
        [
          200.02118361430314,
          200.0211836143031,
          329.01940030049775,
          -1.4921397450962104e-13,
          0.0,
          0.0
        ],
        [
          13.749702497596985,
          -13.749702497597161,
          -3.197442310920451e-14,
          85.35843339070213,
          7.105427357601002e-15,
          0.0
        ],
        [
          -1.4210854715202004e-14,
          -3.552713678800501e-15,
          -1.4210854715202004e-14,
          7.105427357601002e-15,
          85.35843339070212,
          13.749702497597028
        ],
        [
          7.105427357601002e-15,
          0.0,
          1.4210854715202004e-14,
          -3.552713678800501e-15,
          13.749702497597028,
          56.45493698792423
        ]
      ]
    },
    "fractional_composition": {
      "W": 0.4,
      "Ta": 0.4,
      "Nb": 0.2
    },
    "structure_dict": {
      "@module": "pymatgen.core.structure",
      "@class": "Structure",
      "charge": 0.0,
      "lattice": {
        "matrix": [
          [
            3.214768434461628,
            0.0,
            3.214768434461628
          ],
          [
            3.214768434461628,
            -3.214768434461628,
            0.0
          ],
          [
            4.843670075898763,
            1.628901641437133,
            -1.628901641437133
          ]
        ],
        "pbc": [
          true,
          true,
          true
        ],
        "a": 4.546369119904557,
        "b": 4.546369119904557,
        "c": 5.363560470350857,
        "alpha": 64.92399964498937,
        "beta": 64.92399964498937,
        "gamma": 60.00000000000001,
        "volume": 83.72658908048905
      },
      "properties": {},
      "sites": [
        {
          "species": [
            {
              "element": "W",
              "occu": 1
            }
          ],
          "abc": [
            0.9982184514152748,
            0.9982184514152748,
            0.0053446457541972
          ],
          "properties": {
            "magmom": -0.0
          },
          "label": "W",
          "xyz": [
            6.443970037319871,
            -3.2003352660650815,
            3.2003352660650815
          ]
        },
        {
          "species": [
            {
              "element": "W",
              "occu": 1
            }
          ],
          "abc": [
            0.8030329571637967,
            0.8030329571637967,
            0.5909011285086097
          ],
          "properties": {
            "magmom": -0.0
          },
          "label": "W",
          "xyz": [
            8.025260119017062,
            -1.6190451843678222,
            1.6190451843678222
          ]
        },
        {
          "species": [
            {
              "element": "Ta",
              "occu": 1
            }
          ],
          "abc": [
            0.6044705144701863,
            0.6044705144701863,
            0.1865884565894269
          ],
          "properties": {
            "magmom": 0.0
          },
          "label": "Ta",
          "xyz": [
            4.790238382653413,
            -1.6392984862697968,
            1.6392984862697968
          ]
        },
        {
          "species": [
            {
              "element": "Ta",
              "occu": 1
            }
          ],
          "abc": [
            0.3988225459164422,
            0.3988225459164422,
            0.8035323622506948
          ],
          "properties": {
            "magmom": 0.0
          },
          "label": "Ta",
          "xyz": [
            6.456289921177538,
            0.026753052254212317,
            -0.026753052254212317
          ]
        },
        {
          "species": [
            {
              "element": "Nb",
              "occu": 1
            }
          ],
          "abc": [
            0.1954555310343,
            0.1954555310343071,
            0.4136334068970786
          ],
          "properties": {
            "magmom": -0.0
          },
          "label": "Nb",
          "xyz": [
            3.260192298399465,
            0.045423863937859243,
            -0.045423863937882114
          ]
        }
      ]
    }
  },
  "TaNbW4": {
    "k_voigt": 278.6033191586452,
    "k_reuss": 278.4285351096025,
    "k_vrh": 278.51592713412384,
    "g_voigt": 131.6952921451346,
    "g_reuss": 130.13747976056789,
    "g_vrh": 130.91638595285124,
    "young_modulus": 339.5477024196276,
    "elastic_tensor": {
      "raw": [
        [
          458.3648488437749,
          182.00405970912647,
          179.2474917704119,
          -4.662936703425656e-14,
          2.283308243360317,
          -4.5297099404706374e-14
        ],
        [
          182.00405970912647,
          483.1814104646782,
          178.53290659872488,
          -1.676436767183986e-14,
          0.02019108678857528,
          3.4411693310996216e-15
        ],
        [
          179.2474917704119,
          178.53290659872488,
          486.3146969628268,
          -6.5641936330962325e-15,
          2.4761470910421215,
          -5.8598959018496465e-15
        ],
        [
          -4.662936703425656e-14,
          -1.676436767183986e-14,
          -6.5641936330962325e-15,
          126.42649451824676,
          1.1768364061026656e-14,
          4.966549383012495
        ],
        [
          2.283308243360317,
          0.02019108678857528,
          2.4761470910421215,
          1.1768364061026656e-14,
          118.87480810636502,
          7.776951352346884e-15
        ],
        [
          -4.5297099404706374e-14,
          3.4411693310996216e-15,
          -5.8598959018496465e-15,
          4.966549383012495,
          7.776951352346884e-15,
          117.14965870338882
        ]
      ],
      "ieee_format": [
        [
          458.37270363311944,
          182.00409210538223,
          179.24790925493443,
          1.2123813349061697e-17,
          2.2474465409320445,
          2.322782589745074e-15
        ],
        [
          182.00409210538223,
          483.1814104646782,
          178.53287420246917,
          5.227269048780194e-17,
          0.01718215855066721,
          2.1097182100495273e-15
        ],
        [
          179.24790925493437,
          178.53287420246917,
          486.3060072044378,
          1.484632825362276e-17,
          2.5362293937266127,
          9.083373306351823e-16
        ],
        [
          1.2123813349061695e-17,
          5.227269048780194e-17,
          1.484632825362276e-17,
          126.41787724470937,
          6.024027472487682e-16,
          4.974583354239478
        ],
        [
          2.2474465409320445,
          0.01718215855066721,
          2.5362293937266127,
          6.024027472487681e-16,
          118.87522559088744,
          1.1876248247041405e-17
        ],
        [
          2.322782589745074e-15,
          2.1097182100495265e-15,
          9.083373306351825e-16,
          4.974583354239478,
          1.1876248247041405e-17,
          117.15827597692622
        ]
      ]
    },
    "fractional_composition": {
      "W": 0.6666666666666666,
      "Ta": 0.16666666666666666,
      "Nb": 0.16666666666666666
    },
    "structure_dict": {
      "@module": "pymatgen.core.structure",
      "@class": "Structure",
      "charge": 0.0,
      "lattice": {
        "matrix": [
          [
            0.0,
            -3.1846154792665926,
            0.0
          ],
          [
            4.81238956154288,
            1.5923077396332963,
            -1.596905880086057
          ],
          [
            -0.0055226607230835,
            0.0,
            6.371099057358907
          ]
        ],
        "pbc": [
          true,
          true,
          true
        ],
        "a": 3.1846154792665926,
        "b": 5.314569184759607,
        "c": 6.371101450962857,
        "alpha": 107.53340692429865,
        "beta": 90.0,
        "gamma": 107.43428956080268,
        "volume": 97.61289560842363
      },
      "properties": {},
      "sites": [
        {
          "species": [
            {
              "element": "W",
              "occu": 1
            }
          ],
          "abc": [
            0.0031627510081876,
            0.0063255020163753,
            0.0021208086266825
          ],
          "properties": {
            "magmom": -0.0
          },
          "label": "W",
          "xyz": [
            0.030429067368619177,
            1.5785983631388945e-16,
            0.0034106504778495875
          ]
        },
        {
          "species": [
            {
              "element": "W",
              "occu": 1
            }
          ],
          "abc": [
            0.6627388653342196,
            0.3254777306684464,
            0.8316984605644882
          ],
          "properties": {
            "magmom": -0.0
          },
          "label": "W",
          "xyz": [
            1.5617324451618877,
            -1.5923077396332848,
            4.779075976167757
          ]
        },
        {
          "species": [
            {
              "element": "Ta",
              "occu": 1
            }
          ],
          "abc": [
            0.3333331678733106,
            0.6666663357466212,
            0.6666662478274485
          ],
          "properties": {
            "magmom": 0.0
          },
          "label": "Ta",
          "xyz": [
            3.204576343676799,
            0.0,
            3.182793311497252
          ]
        },
        {
          "species": [
            {
              "element": "W",
              "occu": 1
            }
          ],
          "abc": [
            0.0039279079067847,
            0.0078558158135622,
            0.5016353758488074
          ],
          "properties": {
            "magmom": 0.0
          },
          "label": "W",
          "xyz": [
            0.03503488403108078,
            -1.1463052729254741e-14,
            3.183423671742667
          ]
        },
        {
          "species": [
            {
              "element": "W",
              "occu": 1
            }
          ],
          "abc": [
            0.6635040834276297,
            0.3270081668552735,
            0.3312127625832985
          ],
          "properties": {
            "magmom": -0.0
          },
          "label": "W",
          "xyz": [
            1.571861512998688,
            -1.5923077396332739,
            1.5879880549923437
          ]
        },
        {
          "species": [
            {
              "element": "Nb",
              "occu": 1
            }
          ],
          "abc": [
            0.3333332244498607,
            0.6666664488997286,
            0.166666344549275
          ],
          "properties": {
            "magmom": 0.0
          },
          "label": "Nb",
          "xyz": [
            3.2073382180410115,
            1.1546319456101628e-14,
            -0.0027557816527266077
          ]
        }
      ]
    }
  },
  "TaNb2W3": {
    "k_voigt": 250.88656211914844,
    "k_reuss": 250.76194902098794,
    "k_vrh": 250.8242555700682,
    "g_voigt": 93.2762535528432,
    "g_reuss": 85.58798692361283,
    "g_vrh": 89.43212023822801,
    "young_modulus": 239.7963332616016,
    "elastic_tensor": {
      "raw": [
        [
          401.6704789398444,
          174.14917273224324,
          176.0137049931087,
          -1.7097434579227408e-14,
          -6.964519796649458,
          -1.5348833315442786e-14
        ],
        [
          174.14917273224324,
          406.01400027745564,
          174.14917273224324,
          -3.685940441755519e-14,
          4.651907677896541,
          -2.1882838905311363e-14
        ],
        [
          176.0137049931087,
          174.14917273224324,
          401.6704789398445,
          -1.4765966227514582e-14,
          -6.96453859460526,
          -1.70974345792274e-14
        ],
        [
          -1.7097434579227408e-14,
          -3.685940441755519e-14,
          -1.4765966227514582e-14,
          79.35911337572239,
          -2.8421709430404e-14,
          -25.697129784154566
        ],
        [
          -6.964519796649458,
          4.651907677896541,
          -6.96453859460526,
          -2.8421709430404e-14,
          79.76549697306712,
          -3.1913082060289326e-14
        ],
        [
          -1.5348833315442786e-14,
          -2.1882838905311363e-14,
          -1.70974345792274e-14,
          -25.697129784154566,
          -3.1913082060289326e-14,
          78.9090215155765
        ]
      ],
      "ieee_format": [
        [
          354.67853054828896,
          209.07659499340951,
          178.80108041013986,
          -2.7047814527901855e-15,
          1.5777218104420236e-30,
          -1.4210854715202004e-14
        ],
        [
          209.07659499340951,
          382.53664733079853,
          169.4972650543468,
          -4.948798925797988e-15,
          0.0,
          1.4210854715202004e-14
        ],
        [
          178.80108041013986,
          169.4972650543468,
          406.0140002774561,
          -4.905111520167607e-15,
          3.944304526105059e-31,
          0.0
        ],
        [
          -2.704781452790185e-15,
          -4.948798925797987e-15,
          -4.9051115201676056e-15,
          104.83119722980405,
          0.0,
          3.944304526105059e-31
        ],
        [
          1.5777218104420236e-30,
          0.0,
          3.944304526105059e-31,
          0.0,
          53.436937661494895,
          -1.4596379305078093e-15
        ],
        [
          0.0,
          0.0,
          0.0,
          3.944304526105059e-31,
          -1.4596379305078097e-15,
          112.82838697336797
        ]
      ]
    },
    "fractional_composition": {
      "W": 0.5,
      "Ta": 0.16666666666666666,
      "Nb": 0.3333333333333333
    },
    "structure_dict": {
      "@module": "pymatgen.core.structure",
      "@class": "Structure",
      "charge": 0.0,
      "lattice": {
        "matrix": [
          [
            0.0,
            -3.2055653953761425,
            0.0
          ],
          [
            -3.224333973381733,
            0.0,
            -3.224333973381733
          ],
          [
            4.800025460885961,
            1.6027826976880712,
            -4.800025460885961
          ]
        ],
        "pbc": [
          true,
          true,
          true
        ],
        "a": 3.2055653953761425,
        "b": 4.559896834776777,
        "c": 6.974912273736152,
        "alpha": 90.0,
        "beta": 103.28485709361624,
        "gamma": 90.0,
        "volume": 99.22433503673119
      },
      "properties": {},
      "sites": [
        {
          "species": [
            {
              "element": "W",
              "occu": 1
            }
          ],
          "abc": [
            0.9966468863955922,
            -0.0,
            0.9932937727911846
          ],
          "properties": {
            "magmom": -0.0
          },
          "label": "W",
          "xyz": [
            4.767835399537161,
            -1.602782697688071,
            -4.767835399537161
          ]
        },
        {
          "species": [
            {
              "element": "Ta",
              "occu": 1
            }
          ],
          "abc": [
            0.666666708888733,
            -0.0,
            0.3333334177774736
          ],
          "properties": {
            "magmom": 0.0
          },
          "label": "Ta",
          "xyz": [
            1.6000088922960103,
            -1.6027826976880593,
            -1.6000088922960103
          ]
        },
        {
          "species": [
            {
              "element": "W",
              "occu": 1
            }
          ],
          "abc": [
            0.3366864080786299,
            0.0,
            0.673372816157267
          ],
          "properties": {
            "magmom": -0.0
          },
          "label": "W",
          "xyz": [
            3.232206662223363,
            1.1546319456101628e-14,
            -3.232206662223363
          ]
        },
        {
          "species": [
            {
              "element": "Nb",
              "occu": 1
            }
          ],
          "abc": [
            0.5028427929750906,
            0.5,
            0.0056855859501809
          ],
          "properties": {
            "magmom": 0.0
          },
          "label": "Nb",
          "xyz": [
            -1.5848760293699427,
            -1.6027826976880717,
            -1.6394579440117905
          ]
        },
        {
          "species": [
            {
              "element": "W",
              "occu": 1
            }
          ],
          "abc": [
            0.1666667679576804,
            0.5,
            0.333333535915375
          ],
          "properties": {
            "magmom": -0.0
          },
          "label": "W",
          "xyz": [
            -0.01215752732992148,
            2.275957200481571e-14,
            -3.212176446051812
          ]
        },
        {
          "species": [
            {
              "element": "Nb",
              "occu": 1
            }
          ],
          "abc": [
            0.8304904357042596,
            0.5,
            0.6609808714085266
          ],
          "properties": {
            "magmom": 0.0
          },
          "label": "Nb",
          "xyz": [
            1.5605580252286506,
            -1.6027826976880595,
            -4.784891998610384
          ]
        }
      ]
    }
  },
  "Ta2NbW3": {
    "k_voigt": 255.0674993745777,
    "k_reuss": 254.7519364354388,
    "k_vrh": 254.90971790500825,
    "g_voigt": 91.2161316069191,
    "g_reuss": 83.15172340870676,
    "g_vrh": 87.18392750781294,
    "young_modulus": 234.78483628247827,
    "elastic_tensor": {
      "raw": [
        [
          396.94267024339206,
          183.3788245773892,
          185.29916686334002,
          -1.576516694967722e-14,
          -10.217671516127792,
          -1.6708856520608603e-14
        ],
        [
          183.3788245773892,
          397.6085218481778,
          183.3788245773892,
          -2.9087843245179095e-14,
          5.302341671768035,
          -1.2708801778270244e-14
        ],
        [
          185.29916686334002,
          183.3788245773892,
          396.9426702433922,
          -5.440092820663266e-15,
          -10.217676368795967,
          -1.820765760385256e-14
        ],
        [
          -1.576516694967722e-14,
          -2.9087843245179095e-14,
          -5.440092820663266e-15,
          81.16718502435761,
          -3.7303493627405253e-14,
          -30.57792475138838
        ],
        [
          -10.217671516127792,
          5.302341671768035,
          -10.217676368795967,
          -3.7303493627405253e-14,
          80.87757500918117,
          -4.125986818543393e-14
        ],
        [
          -1.6708856520608603e-14,
          -1.2708801778270244e-14,
          -1.820765760385256e-14,
          -30.57792475138838,
          -4.125986818543393e-14,
          80.89021589544235
        ]
      ],
      "ieee_format": [
        [
          351.56314567762365,
          210.24334354418488,
          188.6811662491573,
          9.517689006756241e-16,
          1.2818989709841442e-30,
          0.0
        ],
        [
          210.24334354418485,
          392.43384144747085,
          178.07648290562113,
          1.7765428772896397e-15,
          -7.888609052210118e-31,
          4.263256414560601e-14
        ],
        [
          188.6811662491573,
          178.07648290562113,
          397.6085218481778,
          1.814475794517977e-15,
          0.0,
          1.4210854715202004e-14
        ],
        [
          9.517689006756241e-16,
          1.7765428772896397e-15,
          1.814475794517977e-15,
          111.60662521128833,
          0.0,
          7.888609052210118e-31
        ],
        [
          1.7749370367472766e-30,
          -4.930380657631324e-31,
          0.0,
          0.0,
          50.4507757085116,
          4.790537124716308e-16
        ],
        [
          0.0,
          2.842170943040401e-14,
          1.4210854715202004e-14,
          6.902532920683853e-31,
          4.790537124716303e-16,
          105.82175169002602
        ]
      ]
    },
    "fractional_composition": {
      "W": 0.5,
      "Ta": 0.3333333333333333,
      "Nb": 0.16666666666666666
    },
    "structure_dict": {
      "@module": "pymatgen.core.structure",
      "@class": "Structure",
      "charge": 0.0,
      "lattice": {
        "matrix": [
          [
            0.0,
            -3.2061542168443515,
            0.0
          ],
          [
            -3.2270676466939436,
            0.0,
            -3.227067646693943
          ],
          [
            4.800705345894481,
            1.6030771084221758,
            -4.800705345894482
          ]
        ],
        "pbc": [
          true,
          true,
          true
        ],
        "a": 3.2061542168443515,
        "b": 4.563762832650002,
        "c": 6.975915699873881,
        "alpha": 90.0,
        "beta": 103.2853957764436,
        "gamma": 90.0,
        "volume": 99.34077050700634
      },
      "properties": {},
      "sites": [
        {
          "species": [
            {
              "element": "W",
              "occu": 1
            }
          ],
          "abc": [
            0.9965861686966386,
            0.0,
            0.9931723373932702
          ],
          "properties": {
            "magmom": 0.0
          },
          "label": "W",
          "xyz": [
            4.767927749518389,
            -1.6030771084221873,
            -4.76792774951839
          ]
        },
        {
          "species": [
            {
              "element": "Ta",
              "occu": 1
            }
          ],
          "abc": [
            0.666240851767955,
            0.0,
            0.3324817035359453
          ],
          "properties": {
            "magmom": 0.0
          },
          "label": "Ta",
          "xyz": [
            1.5961466915771165,
            -1.6030771084221191,
            -1.5961466915771167
          ]
        },
        {
          "species": [
            {
              "element": "W",
              "occu": 1
            }
          ],
          "abc": [
            0.3370715839634932,
            -0.0,
            0.674143167926965
          ],
          "properties": {
            "magmom": -0.0
          },
          "label": "W",
          "xyz": [
            3.236362710165222,
            -3.419486915845482e-14,
            -3.2363627101652224
          ]
        },
        {
          "species": [
            {
              "element": "Ta",
              "occu": 1
            }
          ],
          "abc": [
            0.5028772383861557,
            0.5,
            0.0057544767722831
          ],
          "properties": {
            "magmom": 0.0
          },
          "label": "Ta",
          "xyz": [
            -1.5859082759434466,
            -1.603077108422221,
            -1.6411593707504968
          ]
        },
        {
          "species": [
            {
              "element": "W",
              "occu": 1
            }
          ],
          "abc": [
            0.1671697320502216,
            0.5,
            0.3343394641004717
          ],
          "properties": {
            "magmom": -0.0
          },
          "label": "W",
          "xyz": [
            -0.008468570696341438,
            4.574118861455645e-14,
            -3.218599075997602
          ]
        },
        {
          "species": [
            {
              "element": "Nb",
              "occu": 1
            }
          ],
          "abc": [
            0.830054425135536,
            0.5,
            0.6601088502710718
          ],
          "properties": {
            "magmom": -0.0
          },
          "label": "Nb",
          "xyz": [
            1.555454263021622,
            -1.603077108422176,
            -4.782521909715566
          ]
        }
      ]
    }
  },
  "Ta2NbW7": {
    "k_voigt": 279.29346046516645,
    "k_reuss": 279.04680008917325,
    "k_vrh": 279.17013027716985,
    "g_voigt": 129.39138679876774,
    "g_reuss": 126.54363406831442,
    "g_vrh": 127.96751043354108,
    "young_modulus": 333.0188693179876,
    "elastic_tensor": {
      "raw": [
        [
          484.48456369736977,
          190.4012451602485,
          171.4221352381261,
          -1.043609643147647e-14,
          -1.681987882307112e-14,
          1.0890505236757435
        ],
        [
          190.4012451602485,
          484.48456369736977,
          171.4221352381261,
          -1.2823075934420555e-14,
          -1.5099033134902126e-14,
          1.0890492623076555
        ],
        [
          171.4221352381261,
          171.4221352381261,
          478.1809855187574,
          -5.88418203051333e-15,
          -7.882583474838611e-15,
          7.2995295017743365
        ],
        [
          -1.043609643147647e-14,
          -1.2823075934420555e-14,
          -5.88418203051333e-15,
          115.681767688515,
          6.000972316666665,
          4.662936703425661e-15
        ],
        [
          -1.681987882307112e-14,
          -1.5099033134902126e-14,
          -7.882583474838611e-15,
          6.000972316666665,
          115.68176768851504,
          2.2078549025989753e-15
        ],
        [
          1.0890505236757435,
          1.0890492623076555,
          7.2995295017743365,
          4.662936703425661e-15,
          2.2078549025989753e-15,
          110.95853285780994
        ]
      ],
      "ieee_format": [
        [
          446.22333750063575,
          164.12260573635172,
          226.4843715709992,
          -4.930380657631324e-32,
          0.0,
          -8.94265233423376e-16
        ],
        [
          164.12260573635172,
          478.18098551875715,
          178.7216647399004,
          2.9582283945787943e-31,
          0.0,
          -1.115093228244155e-15
        ],
        [
          226.4843715709992,
          178.7216647399004,
          450.5795370726025,
          -9.860761315262648e-32,
          0.0,
          -4.1676964188733215e-16
        ],
        [
          9.860761315262648e-32,
          2.9582283945787943e-31,
          4.930380657631324e-32,
          121.68274000518167,
          -2.8375783120437277e-16,
          1.4210854715202004e-14
        ],
        [
          -1.4210854715202004e-14,
          0.0,
          -1.4210854715202004e-14,
          -2.8375783120437115e-16,
          147.04165926856066,
          9.860761315262648e-32
        ],
        [
          -8.942652334233766e-16,
          -1.115093228244155e-15,
          -4.167696418873329e-16,
          1.4210854715202004e-14,
          0.0,
          109.68079537184835
        ]
      ]
    },
    "fractional_composition": {
      "Nb": 0.1,
      "W": 0.7,
      "Ta": 0.2
    },
    "structure_dict": {
      "@module": "pymatgen.core.structure",
      "@class": "Structure",
      "charge": 0.0,
      "lattice": {
        "matrix": [
          [
            3.1882373325479922,
            -3.1882373325479922,
            -0.0
          ],
          [
            -3.1863041031026516,
            -3.1863041031026516,
            -0.0
          ],
          [
            -1.5941186662739961,
            1.5941186662739961,
            -7.961202633236893
          ]
        ],
        "pbc": [
          true,
          true,
          true
        ],
        "a": 4.50884847575359,
        "b": 4.506114476452811,
        "c": 8.274247761082842,
        "alpha": 90.0,
        "beta": 105.81086708589487,
        "gamma": 90.0,
        "volume": 161.75083797961506
      },
      "properties": {},
      "sites": [
        {
          "species": [
            {
              "element": "Nb",
              "occu": 1
            }
          ],
          "abc": [
            0.998868318309595,
            -0.0,
            0.9977366366191824
          ],
          "properties": {
            "magmom": 0.0
          },
          "label": "Nb",
          "xyz": [
            1.5941186662740083,
            -1.5941186662740083,
            -7.943183538729556
          ]
        },
        {
          "species": [
            {
              "element": "W",
              "occu": 1
            }
          ],
          "abc": [
            0.1012914030169037,
            0.5,
            0.2025828060338003
          ],
          "properties": {
            "magmom": -0.0
          },
          "label": "W",
          "xyz": [
            -1.5931520515513145,
            -1.593152051551337,
            -1.6128027688448097
          ]
        },
        {
          "species": [
            {
              "element": "W",
              "occu": 1
            }
          ],
          "abc": [
            0.2001326180588389,
            -0.0,
            0.4002652361176707
          ],
          "properties": {
            "magmom": -0.0
          },
          "label": "W",
          "xyz": [
            1.1324274851176597e-14,
            -1.1324274851176597e-14,
            -3.1865926517731866
          ]
        },
        {
          "species": [
            {
              "element": "Ta",
              "occu": 1
            }
          ],
          "abc": [
            0.3001241892517281,
            0.5,
            0.6002483785034703
          ],
          "properties": {
            "magmom": -0.0
          },
          "label": "Ta",
          "xyz": [
            -1.5931520515513484,
            -1.5931520515513031,
            -4.778698971538003
          ]
        },
        {
          "species": [
            {
              "element": "W",
              "occu": 1
            }
          ],
          "abc": [
            0.4003032941617165,
            0.0,
            0.8006065883234259
          ],
          "properties": {
            "magmom": -0.0
          },
          "label": "W",
          "xyz": [
            1.1324274851176597e-14,
            -1.1324274851176597e-14,
            -6.373791279147263
          ]
        },
        {
          "species": [
            {
              "element": "W",
              "occu": 1
            }
          ],
          "abc": [
            0.4985282884413998,
            0.5,
            0.9970565768827996
          ],
          "properties": {
            "magmom": -0.0
          },
          "label": "W",
          "xyz": [
            -1.5931520515513258,
            -1.5931520515513258,
            -7.9377694453655065
          ]
        },
        {
          "species": [
            {
              "element": "Ta",
              "occu": 1
            }
          ],
          "abc": [
            0.600795237693722,
            0.0,
            0.2015904753874366
          ],
          "properties": {
            "magmom": -0.0
          },
          "label": "Ta",
          "xyz": [
            1.594118666274008,
            -1.594118666274008,
            -1.6049026234899373
          ]
        },
        {
          "species": [
            {
              "element": "W",
              "occu": 1
            }
          ],
          "abc": [
            0.7000589201288427,
            0.5,
            0.4001178402576784
          ],
          "properties": {
            "magmom": 0.0
          },
          "label": "W",
          "xyz": [
            0.0009666147226817801,
            -3.187270717825333,
            -3.185419203464488
          ]
        },
        {
          "species": [
            {
              "element": "W",
              "occu": 1
            }
          ],
          "abc": [
            0.7997667806731026,
            0.0,
            0.5995335613462051
          ],
          "properties": {
            "magmom": 0.0
          },
          "label": "W",
          "xyz": [
            1.5941186662739963,
            -1.5941186662739963,
            -4.7730081673033
          ]
        },
        {
          "species": [
            {
              "element": "W",
              "occu": 1
            }
          ],
          "abc": [
            0.900130950264158,
            0.5,
            0.8002619005283163
          ],
          "properties": {
            "magmom": 0.0
          },
          "label": "W",
          "xyz": [
            0.0009666147226699007,
            -3.187270717825321,
            -6.371047149765192
          ]
        }
      ]
    }
  },
  "Ta8NbW": {
    "k_voigt": 213.9763455435798,
    "k_reuss": 213.94799245122118,
    "k_vrh": 213.9621689974005,
    "g_voigt": 64.88527758304627,
    "g_reuss": 64.74431876834193,
    "g_vrh": 64.81479817569411,
    "young_modulus": 176.61101273550105,
    "elastic_tensor": {
      "raw": [
        [
          303.38940507579764,
          165.21158998321664,
          172.42487375552457,
          -3.767819389821624e-15,
          -4.496403249731883e-15,
          2.944983750760588
        ],
        [
          165.21158998321664,
          303.38940507579764,
          172.42487375552457,
          -4.6906922790412856e-15,
          -3.760880495917717e-15,
          2.944995456958657
        ],
        [
          172.42487375552457,
          172.42487375552457,
          298.88562475209164,
          -1.1768364061026662e-14,
          -1.1768364061026662e-14,
          -2.2023975491123604
        ],
        [
          -3.767819389821624e-15,
          -4.6906922790412856e-15,
          -1.1768364061026662e-14,
          63.48454287423994,
          0.7695246000000011,
          -6.328271240363393e-15
        ],
        [
          -4.496403249731883e-15,
          -3.760880495917717e-15,
          -1.1768364061026662e-14,
          0.7695246000000011,
          63.48454287423997,
          -1.007414046552078e-14
        ],
        [
          2.944983750760588,
          2.944995456958657,
          -2.2023975491123604,
          -6.328271240363393e-15,
          -1.007414046552078e-14,
          65.5896030302777
        ]
      ],
      "ieee_format": [
        [
          305.7800797675041,
          170.22247620641218,
          168.71089449922943,
          9.018579529325737e-16,
          0.0,
          9.860761315262648e-32
        ],
        [
          170.22247620641218,
          298.88562475209164,
          174.6272713046369,
          1.5835298822291538e-15,
          0.0,
          3.944304526105059e-31
        ],
        [
          168.71089449922943,
          174.6272713046369,
          294.0001213520655,
          1.5897375919659973e-15,
          0.0,
          2.9582283945787943e-31
        ],
        [
          9.018579529325737e-16,
          1.5835298822291538e-15,
          1.5897375919659993e-15,
          62.71501827423998,
          9.860761315262648e-32,
          3.552713678800501e-15
        ],
        [
          1.4210854715202004e-14,
          0.0,
          1.4210854715202004e-14,
          9.860761315262648e-32,
          69.08890754629054,
          3.404253248533497e-16
        ],
        [
          0.0,
          3.944304526105059e-31,
          -4.437342591868191e-31,
          3.552713678800501e-15,
          3.404253248533498e-16,
          64.25406747423999
        ]
      ]
    },
    "fractional_composition": {
      "Ta": 0.8,
      "Nb": 0.1,
      "W": 0.1
    },
    "structure_dict": {
      "@module": "pymatgen.core.structure",
      "@class": "Structure",
      "charge": 0.0,
      "lattice": {
        "matrix": [
          [
            3.260993289099126,
            -3.260993289099126,
            0.0
          ],
          [
            -3.2667604583569854,
            -3.2667604583569854,
            0.0
          ],
          [
            -1.630496644549563,
            1.630496644549563,
            -8.175030295131235
          ]
        ],
        "pbc": [
          true,
          true,
          true
        ],
        "a": 4.611740936251631,
        "b": 4.619896945232597,
        "c": 8.494007236992928,
        "alpha": 90.0,
        "beta": 105.75177543685463,
        "gamma": 90.0,
        "volume": 174.1752977459065
      },
      "properties": {},
      "sites": [
        {
          "species": [
            {
              "element": "Ta",
              "occu": 1
            }
          ],
          "abc": [
            0.9974187466511638,
            0.0,
            0.9948374933023274
          ],
          "properties": {
            "magmom": -0.0
          },
          "label": "Ta",
          "xyz": [
            1.6304966445495634,
            -1.6304966445495634,
            -8.132826646478943
          ]
        },
        {
          "species": [
            {
              "element": "Ta",
              "occu": 1
            }
          ],
          "abc": [
            0.0997407456254712,
            0.5,
            0.1994814912509638
          ],
          "properties": {
            "magmom": 0.0
          },
          "label": "Ta",
          "xyz": [
            -1.6333802291785275,
            -1.6333802291784578,
            -1.6307672342945854
          ]
        },
        {
          "species": [
            {
              "element": "Ta",
              "occu": 1
            }
          ],
          "abc": [
            0.2000767516840966,
            -0.0,
            0.4001535033681861
          ],
          "properties": {
            "magmom": 0.0
          },
          "label": "Ta",
          "xyz": [
            1.1546319456101628e-14,
            -1.1546319456101628e-14,
            -3.27126701273782
          ]
        },
        {
          "species": [
            {
              "element": "Ta",
              "occu": 1
            }
          ],
          "abc": [
            0.3026422744975507,
            0.5,
            0.6052845489951085
          ],
          "properties": {
            "magmom": -0.0
          },
          "label": "Ta",
          "xyz": [
            -1.6333802291785042,
            -1.6333802291784814,
            -4.948219525209859
          ]
        },
        {
          "species": [
            {
              "element": "Nb",
              "occu": 1
            }
          ],
          "abc": [
            0.4000000208750868,
            -0.0,
            0.8000000417501666
          ],
          "properties": {
            "magmom": -0.0
          },
          "label": "Nb",
          "xyz": [
            1.1546319456101628e-14,
            -1.1546319456101628e-14,
            -6.540024577413864
          ]
        },
        {
          "species": [
            {
              "element": "Ta",
              "occu": 1
            }
          ],
          "abc": [
            0.4973577304146816,
            0.5,
            0.9947154608293632
          ],
          "properties": {
            "magmom": -0.0
          },
          "label": "Ta",
          "xyz": [
            -1.6333802291784927,
            -1.633380229178493,
            -8.13182902731547
          ]
        },
        {
          "species": [
            {
              "element": "Ta",
              "occu": 1
            }
          ],
          "abc": [
            0.5999232704545567,
            0.0,
            0.1998465409091277
          ],
          "properties": {
            "magmom": 0.0
          },
          "label": "Ta",
          "xyz": [
            1.63049664454954,
            -1.63049664454954,
            -1.6337515263093025
          ]
        },
        {
          "species": [
            {
              "element": "Ta",
              "occu": 1
            }
          ],
          "abc": [
            0.7002593009829112,
            0.5,
            0.400518601965815
          ],
          "properties": {
            "magmom": 0.0
          },
          "label": "Ta",
          "xyz": [
            -0.0028835846289174683,
            -3.2638768737280683,
            -3.274251704834146
          ]
        },
        {
          "species": [
            {
              "element": "Ta",
              "occu": 1
            }
          ],
          "abc": [
            0.8025812191904791,
            -0.0,
            0.6051624383809856
          ],
          "properties": {
            "magmom": -0.0
          },
          "label": "Ta",
          "xyz": [
            1.6304966445495186,
            -1.6304966445495186,
            -4.947221267240046
          ]
        },
        {
          "species": [
            {
              "element": "W",
              "occu": 1
            }
          ],
          "abc": [
            0.8999999396239886,
            0.5,
            0.79999987924797
          ],
          "properties": {
            "magmom": -0.0
          },
          "label": "W",
          "xyz": [
            -0.0028835846289179123,
            -3.2638768737280675,
            -6.540023248953484
          ]
        }
      ]
    }
  },
  "Ta3NbW6": {
    "k_voigt": 273.5367678474044,
    "k_reuss": 273.4353086927331,
    "k_vrh": 273.4860382700688,
    "g_voigt": 117.60178930553697,
    "g_reuss": 115.10106331745997,
    "g_vrh": 116.35142631149847,
    "young_modulus": 305.7018562365674,
    "elastic_tensor": {
      "raw": [
        [
          459.18395097619833,
          174.02169442384684,
          189.50263993695188,
          7.660538869913579e-15,
          8.215650382226157e-15,
          -4.06292045168253
        ],
        [
          174.02169442384684,
          459.18395097619833,
          189.50263993695188,
          9.103828801926282e-15,
          7.660538869913579e-15,
          -4.062923391584341
        ],
        [
          189.50263993695188,
          189.50263993695188,
          437.40906007874105,
          -4.396483177515621e-14,
          -4.396483177515621e-14,
          -0.9427439252266203
        ],
        [
          7.660538869913579e-15,
          9.103828801926282e-15,
          -4.396483177515621e-14,
          109.86393520515615,
          -13.6031178,
          -1.6875389974302383e-14
        ],
        [
          8.215650382226157e-15,
          7.660538869913579e-15,
          -4.396483177515621e-14,
          -13.6031178,
          109.86393520515618,
          -2.01559169732046e-14
        ],
        [
          -4.06292045168253,
          -4.062923391584341,
          -0.9427439252266203,
          -1.6875389974302383e-14,
          -2.01559169732046e-14,
          100.69774687290987
        ]
      ],
      "ieee_format": [
        [
          409.1747257296657,
          188.55989601172533,
          215.9050758271128,
          -6.336082374731178e-16,
          -2.842170943040401e-14,
          0.0
        ],
        [
          188.55989601172533,
          437.40906007874116,
          190.44538386217855,
          -1.4698034389774547e-15,
          0.0,
          0.0
        ],
        [
          215.9050758271128,
          190.44538386217855,
          425.42641341619947,
          -1.469704075715914e-15,
          0.0,
          0.0
        ],
        [
          -6.336082374731178e-16,
          -1.4698034389774547e-15,
          -1.469704075715914e-15,
          123.46705300515619,
          0.0,
          0.0
        ],
        [
          0.0,
          0.0,
          0.0,
          0.0,
          142.58112827617583,
          -3.2346033352717975e-16
        ],
        [
          0.0,
          0.0,
          0.0,
          0.0,
          -3.2346033352717975e-16,
          96.2608174051562
        ]
      ]
    },
    "fractional_composition": {
      "Ta": 0.3,
      "W": 0.6,
      "Nb": 0.1
    },
    "structure_dict": {
      "@module": "pymatgen.core.structure",
      "@class": "Structure",
      "charge": 0.0,
      "lattice": {
        "matrix": [
          [
            3.1866201470835214,
            -3.1866201470835214,
            0.0
          ],
          [
            -3.195331713235947,
            -3.195331713235947,
            0.0
          ],
          [
            -1.5933100735417607,
            1.5933100735417607,
            -8.030325778043927
          ]
        ],
        "pbc": [
          true,
          true,
          true
        ],
        "a": 4.506561430136863,
        "b": 4.518881445139134,
        "c": 8.340467977422856,
        "alpha": 90.0,
        "beta": 105.6739298893483,
        "gamma": 90.0,
        "volume": 163.53450747407751
      },
      "properties": {},
      "sites": [
        {
          "species": [
            {
              "element": "Ta",
              "occu": 1
            }
          ],
          "abc": [
            0.0003729287644803,
            0.0,
            0.0007458575289677
          ],
          "properties": {
            "magmom": 0.0
          },
          "label": "Ta",
          "xyz": [
            -1.1312348627279256e-14,
            1.1312348627279256e-14,
            -0.005989478941617467
          ]
        },
        {
          "species": [
            {
              "element": "W",
              "occu": 1
            }
          ],
          "abc": [
            0.1020926170215035,
            0.5,
            0.2041852340430211
          ],
          "properties": {
            "magmom": -0.0
          },
          "label": "W",
          "xyz": [
            -1.597665856617996,
            -1.5976658566179511,
            -1.639673948431605
          ]
        },
        {
          "species": [
            {
              "element": "Nb",
              "occu": 1
            }
          ],
          "abc": [
            0.1989569295877609,
            0.0,
            0.3979138591755147
          ],
          "properties": {
            "magmom": -0.0
          },
          "label": "Nb",
          "xyz": [
            1.1324274851176597e-14,
            -1.1324274851176597e-14,
            -3.195377920778077
          ]
        },
        {
          "species": [
            {
              "element": "Ta",
              "occu": 1
            }
          ],
          "abc": [
            0.3008054925229341,
            0.5,
            0.6016109850458824
          ],
          "properties": {
            "magmom": 0.0
          },
          "label": "Ta",
          "xyz": [
            -1.5976658566179962,
            -1.597665856617951,
            -4.831132201568349
          ]
        },
        {
          "species": [
            {
              "element": "W",
              "occu": 1
            }
          ],
          "abc": [
            0.398399853343431,
            0.0,
            0.796799706686862
          ],
          "properties": {
            "magmom": 0.0
          },
          "label": "W",
          "xyz": [
            0.0,
            0.0,
            -6.398561224545348
          ]
        },
        {
          "species": [
            {
              "element": "Ta",
              "occu": 1
            }
          ],
          "abc": [
            0.499444299533224,
            0.5,
            0.998888599066448
          ],
          "properties": {
            "magmom": 0.0
          },
          "label": "Ta",
          "xyz": [
            -1.5976658566179736,
            -1.5976658566179736,
            -8.021400866477483
          ]
        },
        {
          "species": [
            {
              "element": "W",
              "occu": 1
            }
          ],
          "abc": [
            0.6012689642611705,
            -0.0,
            0.2025379285223409
          ],
          "properties": {
            "magmom": 0.0
          },
          "label": "W",
          "xyz": [
            1.5933100735417607,
            -1.5933100735417607,
            -1.6264455484445726
          ]
        },
        {
          "species": [
            {
              "element": "W",
              "occu": 1
            }
          ],
          "abc": [
            0.6982538609915014,
            0.5,
            0.3965077219829746
          ],
          "properties": {
            "magmom": -0.0
          },
          "label": "W",
          "xyz": [
            -0.004355783076167685,
            -3.1909759301597793,
            -3.184086181033356
          ]
        },
        {
          "species": [
            {
              "element": "W",
              "occu": 1
            }
          ],
          "abc": [
            0.8015895141373871,
            0.0,
            0.6031790282747672
          ],
          "properties": {
            "magmom": 0.0
          },
          "label": "W",
          "xyz": [
            1.593310073541772,
            -1.593310073541772,
            -4.84372409953035
          ]
        },
        {
          "species": [
            {
              "element": "W",
              "occu": 1
            }
          ],
          "abc": [
            0.8988155398366072,
            0.5,
            0.7976310796732144
          ],
          "properties": {
            "magmom": 0.0
          },
          "label": "W",
          "xyz": [
            -0.004355783076212871,
            -3.190975930159734,
            -6.405237420468824
          ]
        }
      ]
    }
  },
  "TaNbW8": {
    "k_voigt": 298.02198376316295,
    "k_reuss": 297.99450432586826,
    "k_vrh": 298.0082440445156,
    "g_voigt": 139.49499771025734,
    "g_reuss": 138.474760336557,
    "g_vrh": 138.9848790234072,
    "young_modulus": 360.85604014956954,
    "elastic_tensor": {
      "raw": [
        [
          507.5329311401067,
          189.86459886617197,
          198.96014657231245,
          1.4432899320127032e-14,
          1.6875389974302376e-14,
          -2.2700636539349075
        ],
        [
          189.86459886617197,
          507.5329311401067,
          198.9601465723125,
          1.6875389974302376e-14,
          1.4432899320127032e-14,
          -2.270067139655066
        ],
        [
          198.96014657231245,
          198.9601465723125,
          491.56220756665925,
          -2.442490654175347e-15,
          -2.4424906541753468e-15,
          0.19279906705479655
        ],
        [
          1.4432899320127032e-14,
          1.6875389974302376e-14,
          -2.442490654175347e-15,
          129.49137662263996,
          -4.519397583333333,
          -9.714451465470143e-16
        ],
        [
          1.6875389974302376e-14,
          1.4432899320127032e-14,
          -2.4424906541753468e-15,
          -4.519397583333333,
          129.49137662264,
          -3.236740714639128e-15
        ],
        [
          -2.2700636539349075,
          -2.270067139655066,
          0.19279906705479655,
          -9.714451465470143e-16,
          -3.236740714639128e-15,
          132.2111760273147
        ]
      ],
      "ieee_format": [
        [
          485.4500718240439,
          198.76734750525773,
          216.48758897582465,
          -3.944304526105059e-31,
          0.0,
          7.12557259429272e-15
        ],
        [
          198.76734750525773,
          491.56220756665925,
          199.15294563936735,
          -7.888609052210118e-31,
          -2.842170943040401e-14,
          7.503739324699562e-15
        ],
        [
          216.48758897582465,
          199.15294563936735,
          476.36981023686405,
          0.0,
          0.0,
          3.0400868228284693e-15
        ],
        [
          0.0,
          -7.888609052210118e-31,
          0.0,
          124.97197903930669,
          1.9077079953824744e-15,
          0.0
        ],
        [
          0.0,
          -2.842170943040401e-14,
          1.4210854715202004e-14,
          1.9077079953824733e-15,
          158.83416613696735,
          0.0
        ],
        [
          7.125572594292717e-15,
          7.503739324699562e-15,
          3.0400868228284677e-15,
          0.0,
          0.0,
          134.01077420597335
        ]
      ]
    },
    "fractional_composition": {
      "Nb": 0.1,
      "W": 0.8,
      "Ta": 0.1
    },
    "structure_dict": {
      "@module": "pymatgen.core.structure",
      "@class": "Structure",
      "charge": 0.0,
      "lattice": {
        "matrix": [
          [
            3.1732493047576518,
            -3.1732493047576518,
            0.0
          ],
          [
            -3.1728750294517565,
            -3.1728750294517565,
            0.0
          ],
          [
            -1.5866246523788259,
            1.5866246523788259,
            -7.944818240779244
          ]
        ],
        "pbc": [
          true,
          true,
          true
        ],
        "a": 4.487652203579266,
        "b": 4.487122898365607,
        "c": 8.25559764366524,
        "alpha": 90.0,
        "beta": 105.7710784904468,
        "gamma": 90.0,
        "volume": 159.98200009644867
      },
      "properties": {},
      "sites": [
        {
          "species": [
            {
              "element": "Nb",
              "occu": 1
            }
          ],
          "abc": [
            0.0001001542815651,
            -0.0,
            0.0002003085631302
          ],
          "properties": {
            "magmom": -0.0
          },
          "label": "Nb",
          "xyz": [
            0.0,
            0.0,
            -0.0015914151261410938
          ]
        },
        {
          "species": [
            {
              "element": "W",
              "occu": 1
            }
          ],
          "abc": [
            0.1012381071941304,
            0.5,
            0.2024762143882465
          ],
          "properties": {
            "magmom": -0.0
          },
          "label": "W",
          "xyz": [
            -1.5864375147258556,
            -1.5864375147259009,
            -1.6086367213956696
          ]
        },
        {
          "species": [
            {
              "element": "W",
              "occu": 1
            }
          ],
          "abc": [
            0.1986315447607661,
            0.0,
            0.3972630895215251
          ],
          "properties": {
            "magmom": 0.0
          },
          "label": "W",
          "xyz": [
            1.1213252548714081e-14,
            -1.1213252548714081e-14,
            -3.156183040018931
          ]
        },
        {
          "species": [
            {
              "element": "Ta",
              "occu": 1
            }
          ],
          "abc": [
            0.2999031319425451,
            0.5,
            0.5998062638851116
          ],
          "properties": {
            "magmom": -0.0
          },
          "label": "Ta",
          "xyz": [
            -1.5864375147259122,
            -1.5864375147258443,
            -4.765351746248084
          ]
        },
        {
          "species": [
            {
              "element": "W",
              "occu": 1
            }
          ],
          "abc": [
            0.4001991594651039,
            -0.0,
            0.8003983189302006
          ],
          "properties": {
            "magmom": 0.0
          },
          "label": "W",
          "xyz": [
            1.1324274851176597e-14,
            -1.1324274851176597e-14,
            -6.3590191641257015
          ]
        },
        {
          "species": [
            {
              "element": "W",
              "occu": 1
            }
          ],
          "abc": [
            0.4995586900560547,
            0.5,
            0.9991173801121166
          ],
          "properties": {
            "magmom": 0.0
          },
          "label": "W",
          "xyz": [
            -1.5864375147258898,
            -1.586437514725867,
            -7.937805986194314
          ]
        },
        {
          "species": [
            {
              "element": "W",
              "occu": 1
            }
          ],
          "abc": [
            0.6008655949085949,
            0.0,
            0.2017311898171966
          ],
          "properties": {
            "magmom": 0.0
          },
          "label": "W",
          "xyz": [
            1.5866246523788152,
            -1.5866246523788152,
            -1.6027176365937637
          ]
        },
        {
          "species": [
            {
              "element": "W",
              "occu": 1
            }
          ],
          "abc": [
            0.6988787261516141,
            0.5,
            0.3977574523032282
          ],
          "properties": {
            "magmom": 0.0
          },
          "label": "W",
          "xyz": [
            0.00018713765294764428,
            -3.173062167104704,
            -3.1601106624645676
          ]
        },
        {
          "species": [
            {
              "element": "W",
              "occu": 1
            }
          ],
          "abc": [
            0.8003322742189671,
            -0.0,
            0.6006645484379414
          ],
          "properties": {
            "magmom": 0.0
          },
          "label": "W",
          "xyz": [
            1.5866246523788146,
            -1.5866246523788146,
            -4.772170661019184
          ]
        },
        {
          "species": [
            {
              "element": "W",
              "occu": 1
            }
          ],
          "abc": [
            0.9002926170206583,
            0.5,
            0.8005852340413098
          ],
          "properties": {
            "magmom": -0.0
          },
          "label": "W",
          "xyz": [
            0.00018713765295874651,
            -3.173062167104715,
            -6.360504170709918
          ]
        }
      ]
    }
  },
  "Ta4NbW5": {
    "k_voigt": 260.5256275922347,
    "k_reuss": 260.52065082610005,
    "k_vrh": 260.52313920916737,
    "g_voigt": 87.41168717194071,
    "g_reuss": 84.35531177914723,
    "g_vrh": 85.88349947554397,
    "young_modulus": 232.14141774892096,
    "elastic_tensor": {
      "raw": [
        [
          406.8772320830934,
          184.8557185215913,
          190.6334332387912,
          -1.9761969838327783e-14,
          -1.831867990631508e-14,
          -1.7440872054014431
        ],
        [
          184.8557185215913,
          406.8772320830936,
          190.63343323879133,
          -1.8873791418627658e-14,
          -1.8207657603852564e-14,
          -1.7441002536089796
        ],
        [
          190.6334332387912,
          190.63343323879133,
          398.7310141655772,
          3.1086244689504423e-15,
          3.1086244689504415e-15,
          2.0523150796254237
        ],
        [
          -1.9761969838327783e-14,
          -1.8873791418627658e-14,
          3.1086244689504423e-15,
          73.95581336134397,
          -3.555459199999998,
          3.774758283725536e-15
        ],
        [
          -1.831867990631508e-14,
          -1.8207657603852564e-14,
          3.1086244689504415e-15,
          -3.555459199999998,
          73.95581336134398,
          2.2163176283553364e-15
        ],
        [
          -1.7440872054014431,
          -1.7441002536089796,
          2.0523150796254237,
          3.774758283725536e-15,
          2.2163176283553364e-15,
          73.69251135948555
        ]
      ],
      "ieee_format": [
        [
          373.0471741208385,
          188.58111815916587,
          222.17396394285691,
          -2.0954117794933126e-31,
          -1.4210854715202004e-14,
          -7.876134265142292e-17
        ],
        [
          188.58111815916587,
          398.73101416557716,
          192.68574831841673,
          1.4174844390690056e-31,
          0.0,
          -9.13977159978156e-17
        ],
        [
          222.17396394285686,
          192.68574831841673,
          366.0707992028175,
          -7.395570986446986e-32,
          -1.4210854715202004e-14,
          -4.416771376184098e-17
        ],
        [
          1.6948183510607676e-31,
          1.4174844390690056e-31,
          1.078520768856852e-31,
          70.40035416134398,
          -1.6137273869326465e-17,
          0.0
        ],
        [
          -1.4210854715202004e-14,
          0.0,
          -1.4210854715202004e-14,
          -1.6137273869326712e-17,
          111.01075678075108,
          -1.4174844390690056e-31
        ],
        [
          -7.876134265142311e-17,
